{"layers":[{"Rnn":{"na":1,"nx":0,"wax":{"data":[]},"waa":{"data":[]},"ba":[],"a":{"data":[{"data":[[0.0,1.0,2.0],[2.0,1.0,0.0]]}]},"x":{"data":[]},"a0":{"data":[]}}},{"Rnn":{"na":20,"nx":1,"wax":{"data":[[-0.598],[-0.24599999],[0.30400002],[-0.3],[-0.476],[0.20200002],[-0.17199999],[0.08000004],[-0.82],[0.90400004],[-0.288],[0.97800004],[0.62399995],[-0.994],[0.998],[0.81200004],[0.786],[0.39999998],[-0.31800002],[-0.28399998]]},"waa":{"data":[[0.46800005,0.88,0.86600006,0.37800002,0.656,-0.22600001,-0.16399997,0.92200005,-0.204,0.872,0.656,0.622,-0.518,0.844,0.61800003,-0.232,-0.314,-0.63600004,0.70000005,0.45799994],[0.31200004,-0.32599998,-0.66999996,-0.468,0.39400005,0.66199994,0.758,0.46000004,-0.668,0.79999995,0.288,0.10399997,-0.79,0.021999955,0.055999994,-0.26999998,0.82799995,-0.644,0.27999997,-0.25],[0.05400002,-0.698,0.862,-0.46600002,0.798,-0.342,-0.16399997,0.99,0.52400005,0.66999996,0.46000004,-0.42400002,0.66400003,-0.47000003,-0.60800004,-0.518,0.45599997,-0.39200002,0.20799994,0.83000004],[0.65999997,-0.63,-0.218,-0.14600003,0.10800004,0.954,0.908,0.788,0.41400003,0.566,0.93200004,0.704,-0.45,-0.714,0.398,-0.408,0.037999988,-0.28399998,0.13,-0.43400002],[0.89199996,0.18599999,0.81799996,-0.88199997,0.41199994,0.32200003,-0.94200003,-0.12599999,0.814,-0.718,-0.77,-0.622,0.052000046,-0.742,-0.63600004,-0.722,0.49,0.018000007,-0.894,-0.48799998],[0.018000007,0.42400002,-0.32200003,0.102,-0.12800002,0.0,0.592,0.06400001,0.63199997,-0.022000015,-0.94,0.906,-0.314,-0.18599999,-0.616,-0.798,-0.786,0.79999995,0.14400005,-0.544],[-0.306,0.37600005,0.25199997,-0.43,0.45000005,0.07799995,-0.31599998,-0.3,0.58800006,0.47599995,0.13600004,-0.51600003,-0.746,-0.918,0.14199996,0.66400003,-0.23799998,0.98399997,-0.592,0.84599996],[-0.032000005,-0.92,0.14600003,-0.764,0.822,0.24000001,0.55799997,-0.19,0.29799998,0.39600003,0.42999995,0.898,0.06799996,0.64199996,-0.07200003,0.628,0.085999966,-0.71599996,0.75,-0.24000001],[-0.57,0.80200005,0.342,-0.24599999,0.12800002,-0.25,0.63600004,-0.478,-0.11199999,-0.43400002,0.758,-0.53999996,0.037999988,-0.896,-0.19599998,0.232,-0.86399996,0.11800003,0.992,0.742],[-0.59599996,0.416,-0.384,-0.21600002,0.11199999,-0.018000007,-0.862,-0.037999988,0.928,-0.672,-0.33200002,0.822,-0.292,-0.272,0.98399997,0.38600004,-0.25599998,0.73399997,0.67999995,0.834],[0.44000006,-0.806,0.90999997,-0.894,-0.74399996,-0.204,-0.29799998,0.15799999,0.13399994,-0.012000024,-0.83599997,0.574,-0.64,-0.754,-0.416,-0.964,-0.334,-0.40399998,0.074,0.01999998],[0.018000007,-0.11400002,0.19000006,-0.53,0.98399997,0.09200001,0.78199995,-0.39,-0.05400002,-0.6,-0.29000002,0.232,0.19200003,0.24800003,-0.22600001,0.98,0.548,0.992,-0.36799997,0.40199995],[0.14999998,0.582,-0.79,0.89400005,0.98,-0.604,-0.528,0.888,-0.774,0.94799995,-0.80799997,0.05400002,0.18599999,-0.19,0.62600005,-0.32,-0.464,-0.622,0.09000003,-0.18400002],[0.13,-0.914,-0.46600002,-0.63199997,-0.728,0.37800002,-0.236,-0.78,-0.526,-0.952,-0.11400002,0.18400002,-0.89,0.416,0.83800006,0.77,0.97800004,0.46000004,-0.902,-0.592],[0.35399997,0.482,-0.15399998,0.79999995,-0.95,-0.18199998,0.13,-0.458,-0.56,0.53400004,0.43400002,-0.21399999,-0.41399997,-0.292,-0.10399997,0.582,-0.26,0.23599994,0.696,0.17400002],[0.99600005,-0.818,-0.09200001,0.88199997,-0.736,0.518,0.946,-0.582,0.45599997,-0.11799997,0.28999996,-0.61800003,-0.38,-0.638,-0.65400004,-0.508,-0.37800002,0.72599995,0.110000014,-0.898],[0.71599996,0.76,-0.504,0.926,-0.702,-0.29000002,0.052000046,-0.348,-0.04400003,-0.702,-0.61399996,-0.896,0.11800003,-0.736,-0.302,0.95000005,-0.924,0.027999997,-0.486,0.69799995],[-0.96,-0.68799996,-0.552,-0.988,0.65999997,0.49199998,-0.694,0.065999985,0.49399996,-0.32999998,-0.18400002,0.796,-0.18800002,-0.834,0.031999946,-0.27600002,-0.3,0.194,0.56799996,-0.556],[-0.638,0.87600005,-0.71000004,0.314,-0.76,0.41199994,-0.22399998,0.19000006,0.22599995,0.35800004,0.73599994,-0.444,-0.86399996,-0.34600002,0.842,0.34800005,0.946,-0.53,-0.342,-0.39200002],[-0.468,0.648,-0.53,-0.19199997,-0.538,-0.15200001,-0.71000004,-0.33999997,0.27400005,-0.582,-0.356,0.436,-0.588,0.944,-0.926,0.41199994,0.61800003,0.47399998,0.528,-0.952]]},"ba":[0.0,0.0,0.0,0.0,0.0,0.0,0.0,0.0,0.0,0.0,0.0,0.0,0.0,0.0,0.0,0.0,0.0,0.0,0.0,0.0],"a":{"data":[{"data":[[0.0,-0.53562486,-0.9705947],[-0.8324305,-0.9846736,0.97554666]]},{"data":[[0.0,-0.24115491,-0.06484481],[-0.45580235,0.058676478,-0.014597989]]},{"data":[[0.0,0.2949689,0.26694563],[0.54271775,-0.1470948,-0.9602899]]},{"data":[[0.0,-0.2913126,-0.058473684],[-0.5370496,0.15953904,0.21254365]]},{"data":[[0.0,-0.4430344,-0.9561746],[-0.74068713,-0.8383768,-0.99998623]]},{"data":[[0.0,0.19929668,-0.4709224],[0.38336638,-0.7552139,0.9794178]]},{"data":[[0.0,-0.17032367,0.2880094],[-0.3310437,0.6094386,-0.9926293]]},{"data":[[0.0,0.079829805,0.39105436],[0.1586486,0.27110404,0.3808579]]},{"data":[[0.0,-0.6750699,-0.99245644],[-0.9274726,-0.99295884,0.2333446]]},{"data":[[0.0,0.7182399,0.98343253],[0.94762826,0.9111087,-0.055630945]]},{"data":[[0.0,-0.28029296,-0.30520365],[-0.519752,0.37855166,-0.5532063]]},{"data":[[0.0,0.7521988,0.98914933],[0.9607834,0.96528184,-0.94699097]]},{"data":[[0.0,0.5539069,0.92195284],[0.8477218,0.5542468,0.93790704]]},{"data":[[0.0,-0.75906277,0.02986937],[-0.9631699,0.9775847,-0.8612048]]},{"data":[[0.0,0.7607529,0.97461],[0.96374387,0.71083516,0.9027502]]},{"data":[[0.0,0.670692,-0.035364654],[0.92520237,-0.88135993,-0.35893172]]},{"data":[[0.0,0.6561371,0.21583273],[0.9173433,-0.85508317,-0.99637425]]},{"data":[[0.0,0.37994897,0.9506123],[0.66403675,0.9649128,0.038330723]]},{"data":[[0.0,-0.3076974,0.47848237],[-0.5621699,0.78156114,-0.6669542]]},{"data":[[0.0,-0.27660307,-0.84296364],[-0.5138889,-0.7160899,0.5848494]]}]},"x":{"data":[{"data":[[0.0,1.0,2.0],[2.0,1.0,0.0]]}]},"a0":{"data":[[0.0,0.0],[0.0,0.0],[0.0,0.0],[0.0,0.0],[0.0,0.0],[0.0,0.0],[0.0,0.0],[0.0,0.0],[0.0,0.0],[0.0,0.0],[0.0,0.0],[0.0,0.0],[0.0,0.0],[0.0,0.0],[0.0,0.0],[0.0,0.0],[0.0,0.0],[0.0,0.0],[0.0,0.0],[0.0,0.0]]}}},{"Dense":{"n":3,"w":{"data":[[1.7486401,-0.004714648,-1.2116233,0.101914294,-0.0716677,1.5560849,-1.1266508,0.02224497,1.3531785,-1.0469762,0.0029642412,-2.03514,0.008212835,-0.71999186,-0.2564335,-0.30399936,-0.9499507,-0.9068675,-1.2901065,1.618902],[-0.06326905,0.0384539,0.111243926,0.1203186,-0.039484236,-0.03974481,-0.07713067,0.07131112,-0.14236307,0.0579625,-0.14460702,-0.118109584,0.02820559,0.033789616,-0.10029256,0.08872937,-0.05613748,-0.08856151,0.18417302,0.18661384],[-1.7314777,-0.048594985,1.3021059,-0.21674968,0.0118926205,-1.2472512,1.2980375,0.115326874,-1.2693477,1.1330446,0.15959568,1.9564096,0.1920958,0.92079306,0.2256216,0.13357013,1.1981568,1.0766438,1.0816591,-1.5546458]]},"b":[-0.13426861,-0.029956656,0.0],"afn":"Sigmoid","a":{"data":[[0.000019810419,0.9999833],[0.5,0.5],[0.9999802,0.000016646181]]},"z":{"data":[[-10.829283,11.003299],[5.5879354e-9,2.7939677e-8],[10.829243,-11.003313]]},"dz":{"data":[[0.000019810419,-0.0000166893],[0.0,0.0],[-0.000019788742,0.000016646181]]},"da":{"data":[[0.000079241676,-0.0000667572],[0.0,0.0],[-0.00007915497,0.000066584726]]}}}]}