{"layers":[{"Rnn":{"na":1,"nx":0,"wax":{"data":[]},"waa":{"data":[]},"ba":[],"a":{"data":[{"data":[[0.0,1.0,2.0],[2.0,1.0,0.0]]}]},"x":{"data":[]},"a0":{"data":[]},"da0":{"data":[]}}},{"Rnn":{"na":20,"nx":1,"wax":{"data":[[-0.05400002],[0.036000013],[0.48800004],[0.592],[0.82000005],[-0.87],[-0.566],[-0.15600002],[0.52199996],[-0.25599998],[-0.24000001],[0.696],[-0.576],[0.952],[-0.742],[-0.01999998],[0.09000003],[-0.45200002],[0.19000006],[-0.402]]},"waa":{"data":[[0.564,0.26400006,0.37199998,-0.458,0.60599995,0.26199996,0.408,0.956,0.31799996,-0.976,-0.83599997,-0.686,0.12800002,0.96800005,0.842,-0.61800003,-0.652,0.21399999,0.44599998,0.08200002],[-0.64,-0.796,-0.012000024,0.71800005,-0.384,-0.194,0.31599998,-0.09799999,-0.12599999,0.342,0.36800003,-0.16399997,-0.934,-0.60800004,0.19000006,0.90199995,0.68799996,0.13199997,-0.69,-0.384],[-0.476,-0.846,0.564,0.97,-0.848,0.9,-0.956,0.36,-0.53400004,0.14400005,0.116000056,-0.33600003,0.07200003,-0.66400003,-0.13599998,0.286,-0.39600003,0.34599996,-0.11799997,0.15199995],[-0.13,0.518,-0.92,0.798,-0.53999996,-0.0019999743,0.268,-0.73800004,0.572,-0.518,0.51199996,-0.656,-0.134,-0.74399996,0.07200003,-0.886,-0.33999997,-0.306,0.78199995,0.90199995],[0.602,-0.055999994,-0.34399998,0.804,-0.556,0.05799997,0.99399996,0.314,-0.958,-0.852,0.095999956,0.59000003,0.38199997,-0.14999998,0.29999995,0.16199994,-0.015999973,0.648,-0.768,0.444],[-0.086000025,-0.19,0.73599994,0.87,0.786,0.806,-0.53,-0.25800002,-0.13999999,0.19000006,0.844,-0.66999996,0.75,0.37800002,-0.46600002,-0.514,-0.696,0.93200004,-0.41000003,0.51600003],[-0.29400003,-0.462,-0.34600002,-0.99,-0.448,0.13999999,-0.96,-0.194,-0.01999998,-0.08399999,-0.986,-0.51199996,0.73800004,-0.584,-0.88199997,0.888,0.776,0.75,-0.93,0.065999985],[-0.08399999,-0.24400002,0.296,-0.938,0.98599994,0.11199999,-0.902,-0.426,-0.45,-0.542,0.72599995,0.35599995,-0.818,-0.718,0.30400002,-0.68,-0.40399998,0.742,-0.342,-0.872],[0.574,-0.806,-0.26200002,0.61,0.538,0.6,-0.29000002,-0.14600003,0.26400006,0.806,-0.656,-0.704,-0.12199998,0.408,0.86399996,-0.13599998,0.31799996,0.55999994,0.51,0.100000024],[-0.964,0.834,-0.72,-0.532,-0.21600002,-0.44199997,-0.834,0.88399994,0.30999994,-0.542,0.544,-0.63,-0.21200001,0.53999996,0.584,0.63199997,-0.878,0.992,0.832,0.84800005],[-0.662,0.42400002,0.582,0.08200002,-0.59599996,0.70000005,0.87600005,-0.888,0.43400002,-0.992,0.57799995,0.622,-0.922,0.10800004,-0.898,-0.834,-0.24800003,0.76199996,0.37600005,-0.42799997],[0.648,0.12600005,-0.804,0.029999971,0.08000004,-0.64199996,0.768,0.24199998,0.674,-0.120000005,0.71000004,0.64,-0.274,-0.83599997,-0.402,0.65999997,-0.49199998,0.666,-0.61800003,0.286],[0.16799998,0.28199995,-0.87,-0.272,-0.39,-0.17199999,-0.454,0.786,-0.66400003,0.83000004,-0.824,-0.26200002,-0.408,0.87600005,0.648,-0.278,0.09800005,-0.20200002,-0.838,-0.26999998],[0.52,-0.752,-0.896,-0.25,-0.43,0.69799995,-0.302,-0.35399997,-0.18,-0.53,-0.31800002,-0.25599998,0.26600003,0.13,0.84000003,-0.566,-0.732,-0.548,0.79999995,-0.24400002],[-0.646,0.98800004,-0.324,0.36600006,-0.73399997,0.35399997,-0.0019999743,-0.254,0.16999996,-0.624,-0.81,0.047999978,-0.45599997,0.48599994,0.116000056,-0.478,-0.56799996,0.17999995,-0.58599997,-0.058000028],[-0.582,0.39,0.176,-0.994,-0.68200004,-0.20999998,-0.08200002,-0.050000012,0.804,-0.51,-0.928,0.34599996,0.54999995,0.72,-0.58000004,0.14199996,-0.00999999,-0.288,0.046000004,0.204],[0.24399996,0.712,-0.996,-0.95,-0.22000003,-0.976,-0.73800004,0.42799997,0.63199997,0.79200006,0.23800004,-0.94,-0.46600002,-0.504,-0.658,-0.10399997,0.954,0.222,-0.79,0.742],[0.15400004,0.037999988,0.93200004,-0.686,0.204,-0.95,0.85599995,0.35800004,0.592,-0.51,0.194,0.25800002,-0.51199996,-0.862,-0.72,0.42200005,-0.416,0.17400002,0.53199995,0.61],[-0.444,0.53,0.33200002,-0.788,-0.49,-0.556,-0.592,0.062000036,-0.34399998,-0.726,-0.8,0.80999994,-0.13200003,0.786,0.74600005,0.684,-0.80799997,-0.774,0.25399995,-0.81200004],[-0.528,-0.013999999,-0.694,0.49600005,0.93200004,-0.144,-0.824,0.94200003,0.694,0.93799996,-0.12800002,0.41999996,0.998,-0.76199996,-0.658,-0.496,0.148,-0.13200003,0.61,-0.804]]},"ba":[0.0,0.0,0.0,0.0,0.0,0.0,0.0,0.0,0.0,0.0,0.0,0.0,0.0,0.0,0.0,0.0,0.0,0.0,0.0,0.0],"a":{"data":[{"data":[[0.0,-0.05394759,-0.11871027],[-0.10758209,-0.10129586,-0.74134773]]},{"data":[[0.0,0.03598447,-0.22340807],[0.07187587,-0.31579798,0.5317851]]},{"data":[[0.0,0.45262766,-0.2548892],[0.75132924,-0.8138214,0.93362343]]},{"data":[[0.0,0.5313325,0.11161006],[0.82870877,-0.6571743,0.99012226]]},{"data":[[0.0,0.6750699,-0.10131265],[0.9274726,-0.96073276,-0.09042834]]},{"data":[[0.0,-0.7013741,-0.9582142],[-0.9402267,-0.88218683,-0.9008362]]},{"data":[[0.0,-0.51241565,-0.9861895],[-0.8117026,-0.9873835,0.8631799]]},{"data":[[0.0,-0.15474674,0.031315662],[-0.3022555,0.40837875,0.8822129]]},{"data":[[0.0,0.4792421,0.55883664],[0.7794627,-0.0891695,-0.95105237]]},{"data":[[0.0,-0.2505504,-0.8725572],[-0.471502,-0.9408706,0.9999976]]},{"data":[[0.0,-0.23549576,0.37895808],[-0.44624364,0.8722794,0.23395391]]},{"data":[[0.0,0.60182273,0.70133686],[0.8836101,-0.33795103,0.99222654]]},{"data":[[0.0,-0.519752,-0.93696594],[-0.8184155,-0.9299204,-0.83145463]]},{"data":[[0.0,0.74068713,0.5058353],[0.9565786,-0.679738,0.8289071]]},{"data":[[0.0,-0.630352,-0.8600323],[-0.9022147,-0.28949296,-0.45708182]]},{"data":[[0.0,-0.019997315,0.71410644],[-0.039978642,0.8966333,0.19979338]]},{"data":[[0.0,0.08975782,-0.52747685],[0.17808093,-0.86885285,0.99422544]]},{"data":[[0.0,-0.42354164,-0.19105138],[-0.7182399,0.5393759,0.9972218]]},{"data":[[0.0,0.18774627,0.9626027],[0.36270756,0.9919233,0.84600854]]},{"data":[[0.0,-0.38165894,0.37364393],[-0.66626704,0.88538027,-0.89414936]]}]},"x":{"data":[{"data":[[0.0,1.0,2.0],[2.0,1.0,0.0]]}]},"a0":{"data":[[0.0,0.0],[0.0,0.0],[0.0,0.0],[0.0,0.0],[0.0,0.0],[0.0,0.0],[0.0,0.0],[0.0,0.0],[0.0,0.0],[0.0,0.0],[0.0,0.0],[0.0,0.0],[0.0,0.0],[0.0,0.0],[0.0,0.0],[0.0,0.0],[0.0,0.0],[0.0,0.0],[0.0,0.0],[0.0,0.0]]},"da0":{"data":[[0.0,0.0],[0.0,0.0],[0.0,0.0],[0.0,0.0],[0.0,0.0],[0.0,0.0],[0.0,0.0],[0.0,0.0],[0.0,0.0],[0.0,0.0],[0.0,0.0],[0.0,0.0],[0.0,0.0],[0.0,0.0],[0.0,0.0],[0.0,0.0],[0.0,0.0],[0.0,0.0],[0.0,0.0],[0.0,0.0]]}}},{"Dense":{"n":3,"w":{"data":[[-0.48284018,1.0360047,1.2544248,0.61579424,0.111641355,0.6154041,2.239955,0.77862275,-1.9523531,2.373841,-0.20392503,-0.10078842,0.5098809,0.12152293,0.98214865,-0.9425037,1.9149894,1.3142354,-0.8722628,-1.5579296],[-0.15794082,0.10594037,0.13100769,0.2351104,-0.0861603,-0.4931347,0.0713904,0.14401004,-0.33163574,-0.07661459,-0.07653764,0.31673825,-0.24568492,0.24410027,-0.1789658,0.33151314,0.064543635,0.16581172,0.46237755,-0.34282264],[0.35813117,-0.9172052,-1.4735082,-0.8714249,-0.11537299,-0.65988934,-2.5095637,-0.93350524,1.6394303,-2.336944,0.18220656,0.18484592,-0.62105006,0.063988835,-1.0142553,0.9247905,-1.9570853,-1.2471682,0.5977831,1.3057281]]},"b":[0.1322143,0.25324294,0.0],"afn":"Sigmoid","a":{"data":[[0.000011713417,0.9999901],[0.15099923,0.031083463],[0.9999858,0.0000084602425]]},"z":{"data":[[-11.354764,11.520834],[-1.7267854,-3.4395025],[11.16513,-11.680124]]},"dz":{"data":[[0.000011713417,-0.000009894371],[-0.34900075,-0.46891654],[-0.0000141859055,0.0000084602425]]},"da":{"data":[[0.000046853667,-0.000039577484],[-1.4389452,-1.9806759],[-0.000056743622,0.00003384097]]}}}]}